FANN_FLO_2.1
num_layers=6
learning_rate=0.050000
connection_rate=1.000000
network_type=0
learning_momentum=0.000000
training_algorithm=2
train_error_function=1
train_stop_function=0
cascade_output_change_fraction=0.010000
quickprop_decay=-0.000100
quickprop_mu=1.750000
rprop_increase_factor=1.200000
rprop_decrease_factor=0.500000
rprop_delta_min=0.000000
rprop_delta_max=50.000000
rprop_delta_zero=0.100000
cascade_output_stagnation_epochs=12
cascade_candidate_change_fraction=0.010000
cascade_candidate_stagnation_epochs=12
cascade_max_out_epochs=150
cascade_min_out_epochs=50
cascade_max_cand_epochs=150
cascade_min_cand_epochs=50
cascade_num_candidate_groups=2
bit_fail_limit=3.49999999999999977796e-01
cascade_candidate_limit=1.00000000000000000000e+03
cascade_weight_multiplier=4.00000000000000022204e-01
cascade_activation_functions_count=10
cascade_activation_functions=3 5 7 8 10 11 14 15 16 17 
cascade_activation_steepnesses_count=4
cascade_activation_steepnesses=2.50000000000000000000e-01 5.00000000000000000000e-01 7.50000000000000000000e-01 1.00000000000000000000e+00 
layer_sizes=24 31 24 14 8 3 
scale_included=1
scale_mean_in=-0.457604 0.582986 0.006329 2.226833 0.485141 -0.457014 0.582886 0.006329 2.226226 0.485131 -0.457014 0.582886 0.006329 2.226226 0.485131 366.528503 269.594452 290.248016 282.826782 304.321350 349.887512 378.198151 340.435028 
scale_deviation_in=0.569544 0.355394 0.000000 0.840586 0.207879 0.570122 0.355391 0.000000 0.841199 0.207831 0.570122 0.355391 0.000000 0.841199 0.207831 118.630783 48.370735 119.953331 50.990120 113.719864 58.408714 113.711510 56.703709 
scale_new_min_in=-1.000000 -1.000000 -1.000000 -1.000000 -1.000000 -1.000000 -1.000000 -1.000000 -1.000000 -1.000000 -1.000000 -1.000000 -1.000000 -1.000000 -1.000000 -1.000000 -1.000000 -1.000000 -1.000000 -1.000000 -1.000000 -1.000000 -1.000000 
scale_factor_in=1.000000 1.000000 1.000000 1.000000 1.000000 1.000000 1.000000 1.000000 1.000000 1.000000 1.000000 1.000000 1.000000 1.000000 1.000000 1.000000 1.000000 1.000000 1.000000 1.000000 1.000000 1.000000 1.000000 
scale_mean_out=645.040527 324.833099 
scale_deviation_out=349.590118 200.315704 
scale_new_min_out=-1.000000 -1.000000 
scale_factor_out=1.000000 1.000000 
neurons (num_inputs, activation_function, activation_steepness)=(0, 0, 0.00000000000000000000e+00) (0, 0, 0.00000000000000000000e+00) (0, 0, 0.00000000000000000000e+00) (0, 0, 0.00000000000000000000e+00) (0, 0, 0.00000000000000000000e+00) (0, 0, 0.00000000000000000000e+00) (0, 0, 0.00000000000000000000e+00) (0, 0, 0.00000000000000000000e+00) (0, 0, 0.00000000000000000000e+00) (0, 0, 0.00000000000000000000e+00) (0, 0, 0.00000000000000000000e+00) (0, 0, 0.00000000000000000000e+00) (0, 0, 0.00000000000000000000e+00) (0, 0, 0.00000000000000000000e+00) (0, 0, 0.00000000000000000000e+00) (0, 0, 0.00000000000000000000e+00) (0, 0, 0.00000000000000000000e+00) (0, 0, 0.00000000000000000000e+00) (0, 0, 0.00000000000000000000e+00) (0, 0, 0.00000000000000000000e+00) (0, 0, 0.00000000000000000000e+00) (0, 0, 0.00000000000000000000e+00) (0, 0, 0.00000000000000000000e+00) (0, 0, 0.00000000000000000000e+00) (24, 0, 1.00000000000000000000e+00) (24, 0, 1.00000000000000000000e+00) (24, 0, 1.00000000000000000000e+00) (24, 0, 1.00000000000000000000e+00) (24, 0, 1.00000000000000000000e+00) (24, 0, 1.00000000000000000000e+00) (24, 0, 1.00000000000000000000e+00) (24, 0, 1.00000000000000000000e+00) (24, 0, 1.00000000000000000000e+00) (24, 0, 1.00000000000000000000e+00) (24, 0, 1.00000000000000000000e+00) (24, 0, 1.00000000000000000000e+00) (24, 0, 1.00000000000000000000e+00) (24, 0, 1.00000000000000000000e+00) (24, 0, 1.00000000000000000000e+00) (24, 0, 1.00000000000000000000e+00) (24, 0, 1.00000000000000000000e+00) (24, 0, 1.00000000000000000000e+00) (24, 0, 1.00000000000000000000e+00) (24, 0, 1.00000000000000000000e+00) (24, 0, 1.00000000000000000000e+00) (24, 0, 1.00000000000000000000e+00) (24, 0, 1.00000000000000000000e+00) (24, 0, 1.00000000000000000000e+00) (24, 0, 1.00000000000000000000e+00) (24, 0, 1.00000000000000000000e+00) (24, 0, 1.00000000000000000000e+00) (24, 0, 1.00000000000000000000e+00) (24, 0, 1.00000000000000000000e+00) (24, 0, 1.00000000000000000000e+00) (0, 0, 1.00000000000000000000e+00) (31, 0, 1.00000000000000000000e+00) (31, 0, 1.00000000000000000000e+00) (31, 0, 1.00000000000000000000e+00) (31, 0, 1.00000000000000000000e+00) (31, 0, 1.00000000000000000000e+00) (31, 0, 1.00000000000000000000e+00) (31, 0, 1.00000000000000000000e+00) (31, 0, 1.00000000000000000000e+00) (31, 0, 1.00000000000000000000e+00) (31, 0, 1.00000000000000000000e+00) (31, 0, 1.00000000000000000000e+00) (31, 0, 1.00000000000000000000e+00) (31, 0, 1.00000000000000000000e+00) (31, 0, 1.00000000000000000000e+00) (31, 0, 1.00000000000000000000e+00) (31, 0, 1.00000000000000000000e+00) (31, 0, 1.00000000000000000000e+00) (31, 0, 1.00000000000000000000e+00) (31, 0, 1.00000000000000000000e+00) (31, 0, 1.00000000000000000000e+00) (31, 0, 1.00000000000000000000e+00) (31, 0, 1.00000000000000000000e+00) (31, 0, 1.00000000000000000000e+00) (0, 0, 1.00000000000000000000e+00) (24, 0, 1.00000000000000000000e+00) (24, 0, 1.00000000000000000000e+00) (24, 0, 1.00000000000000000000e+00) (24, 0, 1.00000000000000000000e+00) (24, 0, 1.00000000000000000000e+00) (24, 0, 1.00000000000000000000e+00) (24, 0, 1.00000000000000000000e+00) (24, 0, 1.00000000000000000000e+00) (24, 0, 1.00000000000000000000e+00) (24, 0, 1.00000000000000000000e+00) (24, 0, 1.00000000000000000000e+00) (24, 0, 1.00000000000000000000e+00) (24, 0, 1.00000000000000000000e+00) (0, 0, 1.00000000000000000000e+00) (14, 0, 1.00000000000000000000e+00) (14, 0, 1.00000000000000000000e+00) (14, 0, 1.00000000000000000000e+00) (14, 0, 1.00000000000000000000e+00) (14, 0, 1.00000000000000000000e+00) (14, 0, 1.00000000000000000000e+00) (14, 0, 1.00000000000000000000e+00) (0, 0, 1.00000000000000000000e+00) (8, 0, 1.00000000000000000000e+00) (8, 0, 1.00000000000000000000e+00) (0, 0, 1.00000000000000000000e+00) 
connections (connected_to_neuron, weight)=(0, 4.43016952547216957825e-01) (1, 7.68875957561695022591e-01) (2, 7.26069295259849201152e-01) (3, 8.40914269507316736174e-01) (4, 5.79450644652096946707e-01) (5, 3.49597632005602343419e-01) (6, 5.00420262312506358704e-01) (7, 6.40261012541786578289e-01) (8, 7.56606253851325072368e-01) (9, 1.84441480073620656110e-01) (10, 3.63373334571510775426e-01) (11, 4.62629797143868537468e-01) (12, 7.38693447264568203714e-01) (13, 7.10907152909927675388e-01) (14, 1.73519290271687998128e-01) (15, 1.30362034158520954941e-02) (16, -8.26729475553932280363e-02) (17, 1.72321253218724185219e-01) (18, -1.44779203120405167149e-02) (19, 2.21909644293185270847e-01) (20, 3.20115648056367607666e-01) (21, 1.97112929882147458471e-01) (22, 7.54805945853224136144e-02) (23, 6.54458300622836719462e-01) (0, 5.36471684721401165241e-01) (1, 4.50878375544234877292e-01) (2, 1.84211309963597497097e-01) (3, 5.29555914821375317558e-01) (4, 3.68458081974287809945e-01) (5, 4.94279917318036998708e-01) (6, 1.51774762550002301209e-01) (7, 1.80522438103092625061e-01) (8, 4.78728514244527447730e-01) (9, 2.17579122935376262360e-01) (10, 5.29349591571494859643e-01) (11, 1.17958134391921654061e-01) (12, 1.21430188381805803655e-01) (13, 4.01055272748479463285e-01) (14, 2.91282438044431268853e-01) (15, 2.74485062847435956623e-01) (16, -5.98937161366097578497e-02) (17, 3.01613679410227375488e-01) (18, -1.86403476439494536487e-01) (19, 1.70643629184314360447e-01) (20, 5.10573158988412489911e-01) (21, 9.69097925035172780284e-02) (22, -2.16720768047814454915e-01) (23, 1.82208780163658934370e-01) (0, 7.01819337336056947585e-01) (1, 4.86834810792353689379e-01) (2, 2.48982241994345238068e-01) (3, 7.35405417865029886748e-01) (4, 2.66840262972410868780e-01) (5, 5.05095178364819208383e-01) (6, 4.35901195782409434099e-01) (7, 2.07983043661912697653e-01) (8, 6.42963649189379427007e-01) (9, 3.03421719647491427985e-01) (10, 5.18695217195012214795e-01) (11, 4.76072841364140186826e-01) (12, 2.75928592926472593394e-01) (13, 6.90107068229723341624e-01) (14, 3.49558020658348844734e-01) (15, -7.01067147736963124094e-03) (16, -6.84992568056151662770e-02) (17, -3.50151098182061693009e-01) (18, -3.17980163291498640898e-01) (19, 7.09443166143934433876e-01) (20, 4.83597356966635697623e-03) (21, 4.83523280202877214773e-01) (22, 1.04405772245670580567e+00) (23, 1.47891482955423869683e-01) (0, 2.30536099365851565590e-01) (1, 3.42300317418134159020e-01) (2, 2.57927300748233834238e-01) (3, 4.59453302621329162658e-01) (4, 3.20676208361054648766e-01) (5, 6.00363797015409303426e-02) (6, 3.75515012828393557331e-01) (7, 3.40319961649235502854e-01) (8, 4.66160083291273896755e-01) (9, 5.17523860671285418356e-01) (10, 1.26416595975949397346e-01) (11, 3.30577113492174723408e-01) (12, 2.46060446244481784150e-01) (13, 5.43716220286751816815e-01) (14, 4.44011826180643331963e-01) (15, 2.05039703570126574661e-01) (16, 1.29889804516710533067e-01) (17, 4.38317153847912754916e-01) (18, 3.98602848356983466283e-02) (19, 3.84885974671101083189e-01) (20, 3.69041242332798613557e-01) (21, 1.24791472978956208273e-01) (22, 3.14957279496374975558e-01) (23, 2.31925614517930728242e-01) (0, 7.11196643663710270644e-01) (1, 2.00646576306031443337e-01) (2, 2.84705522282915568510e-01) (3, 9.59603059187278617514e-01) (4, 4.62549512591662881356e-01) (5, 7.82186399172749458053e-01) (6, 1.80059539139679952724e-01) (7, 2.81719292326765180512e-01) (8, 8.43038815402850416625e-01) (9, 4.37430700676424644158e-01) (10, 7.88494571070876060226e-01) (11, 1.26424483940414250638e-01) (12, 2.62623022123168847752e-01) (13, 9.49602379792794493163e-01) (14, 4.82762863317421520026e-01) (15, 2.13566135439333060209e-01) (16, 5.80728248770637847653e-02) (17, 1.21930448264616228538e-01) (18, 3.48046139703510684638e-02) (19, 6.47975351715404102038e-01) (20, -2.78820777119639262587e-01) (21, 4.15657841627620705527e-01) (22, -1.42870358624453963614e-01) (23, 3.17921007796128196610e-01) (0, 5.88208333690419027384e-01) (1, 5.03466682178623003985e-01) (2, 3.01816092498835952807e-01) (3, 2.25454693757690366462e-01) (4, 3.61716170756875121661e-01) (5, 4.47343141838626778828e-01) (6, 4.94857798878626686800e-01) (7, 3.14666645296153457689e-01) (8, 2.61576479957167373769e-01) (9, 3.75247224022396630438e-01) (10, 4.87054164588100579891e-01) (11, 5.23545141879992792511e-01) (12, 3.26459334857997329760e-01) (13, 2.91309973881323069911e-01) (14, 3.57700682033546990546e-01) (15, 3.23174635441109914247e-01) (16, 3.11786719045423710295e-01) (17, 5.06952436477196011211e-01) (18, 2.19635561411124197173e-01) (19, 2.73186625860319498571e-01) (20, 5.03454156593315604873e-01) (21, 2.52763059096568709627e-01) (22, 4.38506768830418836025e-01) (23, 2.28507043488506172979e-01) (0, 7.05713376862672658874e-01) (1, 3.03765930888190427428e-01) (2, 1.28835564662298784899e-01) (3, 3.58630656790718316262e-01) (4, 3.11519783418991558221e-01) (5, 5.12119614705916381681e-01) (6, 5.00972046135196164007e-02) (7, 8.30037428034180596592e-02) (8, 2.34649696860073225801e-01) (9, 2.71692923560843457853e-01) (10, 5.04972175881751916826e-01) (11, 6.38065448580533572942e-02) (12, 8.87654108894677246200e-02) (13, 3.25497492689284628753e-01) (14, 2.71544589951739079314e-01) (15, 1.98782122376758407789e-01) (16, 7.15365100267984777016e-02) (17, 3.26955862905383476402e-01) (18, -3.10323555473792055126e-02) (19, 2.76939611560584941774e-01) (20, 9.34564281018651077382e-01) (21, 1.26400207601258279810e-01) (22, 6.45768900060054995560e-02) (23, -5.71500452267302977427e-02) (0, 3.76735842805001219791e-01) (1, 1.65149764638111207216e-01) (2, 1.62364605300753583883e-01) (3, 8.03402302745280572083e-01) (4, 7.05491888853960302797e-01) (5, 2.82058839464106980710e-01) (6, 2.40353081151029157603e-01) (7, 1.39310117297499147515e-01) (8, 5.72886377173914662642e-01) (9, 3.57779874508954376378e-01) (10, 2.91532804036059800534e-01) (11, 3.44121692477892870965e-01) (12, 1.52617390685408804707e-01) (13, 6.57304986912215283290e-01) (14, 4.66174213258291558759e-01) (15, 1.80720479318367127641e-01) (16, -3.71057654415949011995e-01) (17, 1.31139281108059141401e-01) (18, -5.84800381411485492578e-01) (19, 2.06987974887539838420e-01) (20, 4.62420836310819538539e-01) (21, 1.10485693991602976216e-01) (22, -1.87125624902846982023e-01) (23, 1.64296868675082113898e-01) (0, 7.99541183670296917718e-01) (1, 2.36743372108531024978e-01) (2, 4.68247278982232006950e-01) (3, 7.74375563816825374097e-01) (4, 4.66540843341872513150e-01) (5, 6.43646401155115288617e-01) (6, 2.71563079616345626199e-01) (7, 5.11463704907733518468e-01) (8, 8.65594069390020370847e-01) (9, 6.16957692005029811888e-01) (10, 6.76791612792123742359e-01) (11, 2.86057036778253725995e-01) (12, 4.57695926928349594576e-01) (13, 7.66931329770407677060e-01) (14, 5.82820964552752229793e-01) (15, -6.06793610368263069965e-01) (16, 5.24506346234036024967e-01) (17, -1.17798898805301768822e-01) (18, 3.91720127151434505119e-01) (19, 3.38421440098037873412e-01) (20, 3.85969332132539033609e-01) (21, 1.69727939639645303282e-01) (22, 2.05814597642285024293e+00) (23, 4.34664856099906904419e-01) (0, 2.14256394547000447726e-03) (1, 5.64084550353287417224e-01) (2, 3.26739190866943141067e-01) (3, 1.15641510279974435438e-01) (4, 7.24477763300420352088e-01) (5, 3.16164130060650250265e-01) (6, 7.01565358144154438413e-01) (7, 2.97809830656033780460e-01) (8, -7.86679588611940705523e-02) (9, 5.05503495587028006675e-01) (10, 3.09278236417747875997e-01) (11, 7.81576839563399183852e-01) (12, 3.97046393504171923894e-01) (13, -6.81322222929219567522e-02) (14, 4.95728955501686940899e-01) (15, 7.75904248404020946417e-01) (16, -9.42254218280268229790e-01) (17, 2.94512734791093855335e-01) (18, -1.12828899065886917308e-01) (19, -5.96518740392043111953e-01) (20, 5.76126350877706028264e-01) (21, 9.67780401153739942843e-03) (22, -1.18984799757848103141e+00) (23, 3.39835664978043794360e-01) (0, 6.54177842903787554185e-01) (1, -9.04842707381381763411e-04) (2, 4.24722489995896068660e-01) (3, 5.75954148262702414485e-01) (4, -7.97403058464762892754e-02) (5, 6.44612894174463768593e-01) (6, 4.41423073164284585079e-02) (7, 4.84907738959430956172e-01) (8, 5.70817604248655796617e-01) (9, 1.69652102914785635202e-01) (10, 5.70882254061110039345e-01) (11, 3.59721328816462321276e-02) (12, 4.29699542095898889826e-01) (13, 5.28822995309986443324e-01) (14, 1.48198081580137891455e-01) (15, 3.60630900339255600073e-01) (16, 1.06292110111333393263e+00) (17, 8.18245674064305150708e-01) (18, 3.36674414538509880757e-01) (19, 2.32136512021516611126e-01) (20, -4.32970138014185240705e-02) (21, -2.45824332178636445478e-01) (22, 4.49722318908978346830e-01) (23, 3.72356094514938895657e-01) (0, 9.12836665828689497459e-01) (1, 1.71054268163087663801e-01) (2, 2.56682802277375055056e-01) (3, 7.13727643118943211320e-01) (4, 2.72953879750249595038e-01) (5, 9.39571236305357881946e-01) (6, 2.53240268863186568371e-01) (7, 2.47302521305841849220e-01) (8, 7.22009464230183417577e-01) (9, 3.21737609779470079552e-01) (10, 9.74625294141890474720e-01) (11, 2.85241741872777732070e-01) (12, 1.81183848815722803316e-01) (13, 7.21724501874092871923e-01) (14, 4.14072662102085931046e-01) (15, 2.14892102009002772256e-01) (16, 9.53285907893600015228e-01) (17, 2.34909735845164696633e-01) (18, 2.02277648659802383735e-01) (19, 5.72776740820545637867e-01) (20, 3.23701548905900304831e-01) (21, 3.23860271245657971306e-01) (22, 6.93003608177975460869e-01) (23, 2.57311281102468369930e-01) (0, 8.39806937942472853109e-01) (1, 7.34477336716777284842e-01) (2, 1.04898744045063913033e-01) (3, 1.45923227360354151871e-01) (4, 4.46103881526272866287e-02) (5, 1.26207836842927267895e+00) (6, 2.12178112712509414628e-01) (7, 1.92807151718307534516e-01) (8, 4.16373650999746047763e-01) (9, 1.92548995535706708726e-02) (10, 1.30401442325505545483e+00) (11, 2.79963614192627552324e-01) (12, 9.98982719762777915395e-02) (13, 4.00689105959621871822e-01) (14, 7.38804598114542205450e-03) (15, 3.40435684714430308873e-01) (16, -3.24409201637287869513e-01) (17, 1.58042114805940631106e-01) (18, 8.17242567392474916765e-01) (19, 4.77130360562044497641e-01) (20, 1.53960335271026538262e-01) (21, 5.17401579567683622685e-01) (22, 4.65075356891188451680e-01) (23, 1.85869026614967659816e-02) (0, 8.48277417592225746468e-01) (1, 3.94820681627704284100e-01) (2, 2.15555864522391671390e-01) (3, 6.15964973566207718569e-01) (4, 5.82799674058107730623e-01) (5, 6.67318050471669699242e-01) (6, 9.15317150844537630316e-02) (7, 1.81583090821439696594e-01) (8, 6.52629651374371899664e-01) (9, 3.12242459182894949166e-01) (10, 5.54235516769438274487e-01) (11, 1.08879182216365166802e-01) (12, 1.81579186717206908508e-01) (13, 6.15409106261308402885e-01) (14, 3.70909224872763176872e-01) (15, 2.82346407204312421779e-01) (16, -9.77894782406129176033e-02) (17, 5.10736135867834104007e-02) (18, 1.31363914636662998392e-01) (19, 1.90449279660542369896e-01) (20, 1.26342438153379643673e+00) (21, 7.11470075862405959555e-01) (22, -1.01743049345839664532e-01) (23, 1.11865322241715581253e-01) (0, 8.99664212773810700874e-01) (1, 6.55270970425208099108e-01) (2, 2.58165939280490586150e-01) (3, 2.70900216240888058739e-01) (4, 1.04026972889707136627e-01) (5, 8.67139484316136521791e-01) (6, 5.76580018644322844779e-01) (7, 3.06496045121660509736e-01) (8, 2.16395491072537221600e-01) (9, 1.32209226585513678343e-01) (10, 8.44506587415959519838e-01) (11, 5.72235339229097195179e-01) (12, 2.56120468059280237405e-01) (13, 3.10838473299169470998e-01) (14, 5.60896025072465456707e-02) (15, 1.79427738716805451613e-01) (16, 1.43082329776416022904e-01) (17, 3.23801105212156492552e-01) (18, 2.54646014510095941574e-01) (19, 3.01129967871102410815e-01) (20, 3.92568424096111534549e-01) (21, 9.30375185933606102529e-02) (22, 1.88508611828531902344e-01) (23, 2.57982468733291225860e-01) (0, 5.27810562023403373466e-01) (1, 2.22211367603806192461e-01) (2, 2.55940549897189839612e-01) (3, 3.93883882160881881873e-01) (4, 3.51518509079053242949e-01) (5, 7.10168342234532290469e-01) (6, 1.65141859450846917312e-01) (7, 3.38504967170012383004e-01) (8, 3.87852550959760178362e-01) (9, 4.23734363757626575353e-01) (10, 6.77034835459653150380e-01) (11, 1.77836270430595716485e-01) (12, 3.38360537665141014596e-01) (13, 3.65305527588892620106e-01) (14, 4.79547614820862555529e-01) (15, 1.91021574410715835879e-02) (16, 2.81780265847921040923e-01) (17, 1.14516782851220744188e-01) (18, 9.44332651142097967423e-02) (19, 3.06916844862536897232e-01) (20, 1.59392501424167665203e-01) (21, 2.38450537020564456991e-01) (22, 3.30668099813157312372e-01) (23, 3.38797722833407366494e-01) (0, 4.60938950303696581834e-01) (1, 1.12193536370883376052e-01) (2, 2.93830129304290754710e-01) (3, 1.25997626559120035061e+00) (4, 3.83919085090634215618e-01) (5, 5.69471143810000413055e-01) (6, 1.10266072778929163922e-01) (7, 3.16115613081815238772e-01) (8, 1.32189036420134375938e+00) (9, 3.97627615712062731923e-01) (10, 5.97787641612724240936e-01) (11, 1.01709442316521403438e-01) (12, 2.68171957680341133123e-01) (13, 1.28377591332939910984e+00) (14, 4.11457968286651820655e-01) (15, 3.74037146396880793020e-01) (16, 6.30238289038976134959e-02) (17, 2.19491134075380761592e-01) (18, 1.63942881485976965639e-01) (19, 2.94319411895397342604e-01) (20, -1.24320944640662692238e-02) (21, 4.91315107219988722598e-01) (22, 5.87373917199886588780e-03) (23, 1.50721336701270580694e-01) (0, 2.40456834327011675922e-01) (1, -5.46876679478417795921e-02) (2, 1.23916052678752761085e-01) (3, 8.42688148483194510163e-01) (4, 3.70587764080885617712e-01) (5, 5.25524389481215492559e-01) (6, -6.12468032123740097061e-02) (7, 7.28027004992244514137e-02) (8, 8.52468079489423269379e-01) (9, 2.40539223697674775515e-01) (10, 4.14147719757775756300e-01) (11, -8.35205784024956460199e-02) (12, 1.53460472833012225718e-02) (13, 8.21013114017201894868e-01) (14, 1.82114486858881874376e-01) (15, 6.43984243981049919725e-01) (16, 2.09467295443661050136e-01) (17, 4.70967341728507404852e-01) (18, 6.87228524409254526439e-01) (19, -2.36664570672547452945e-01) (20, 2.38355525598014095223e-01) (21, 2.83731475494676144145e-01) (22, -5.88434238607644655161e-01) (23, 3.08783579861394569255e-02) (0, 3.71848676404848088595e-01) (1, 3.80332779798238762581e-01) (2, 3.93270346033957052256e-01) (3, 5.65001421055365882218e-01) (4, 5.91737209105045569579e-01) (5, 4.49382098751042957652e-01) (6, 5.25063173260483240234e-01) (7, 3.22990468401098351769e-01) (8, 6.00173142374619272843e-01) (9, 5.03718590044916925130e-01) (10, 4.23271115297339517447e-01) (11, 4.27454398360036735838e-01) (12, 3.27885544556761832080e-01) (13, 6.34770487071126709999e-01) (14, 4.57121669927184781645e-01) (15, 1.23493542257549729357e-01) (16, 3.21688969497914922790e-01) (17, 1.61096603021127438016e-01) (18, 4.34501798335237610083e-01) (19, 7.09095242625800148417e-01) (20, 1.74363800433683102664e-01) (21, 5.25152640335868947652e-01) (22, 2.90105002558554869729e-01) (23, 3.71679695952322530772e-01) (0, 1.27435778511252695289e+00) (1, 7.90156698797985890259e-01) (2, 5.08021190930461719049e-01) (3, 4.19059298330866414339e-01) (4, 4.06913208520264524370e-01) (5, 3.11375696576136229421e-01) (6, 8.16354340471484474229e-01) (7, 4.48148224670771033740e-01) (8, 6.76398210294764989925e-01) (9, 3.94061824124586790319e-01) (10, 3.71736605084449778236e-01) (11, 8.63337712891557029771e-01) (12, 5.28097249735450469110e-01) (13, 5.76244308680483707796e-01) (14, 3.62544400435212410549e-01) (15, 1.14798489889327656743e-01) (16, 5.05083985321411299552e-01) (17, 1.62559062421579608726e-01) (18, 5.73566401783315082952e-01) (19, 1.19636141014309438368e+00) (20, 4.13273400566816773161e-01) (21, 4.89940644801858948831e-01) (22, 9.28846550922944214079e-01) (23, 2.81824901867958554913e-01) (0, 2.55481453865990804086e-01) (1, -2.10772202613292505835e-03) (2, 3.43720761304017630167e-01) (3, 8.61495293976892173582e-01) (4, 7.22683546103243590331e-01) (5, 5.83641795771137616988e-01) (6, 2.48800441066264546586e-02) (7, 3.21099576716535495269e-01) (8, 9.33124954341235213207e-01) (9, 6.51731188093639390857e-01) (10, 6.19527319775835416671e-01) (11, -6.46054056098248064011e-02) (12, 2.82926560555803063846e-01) (13, 9.97139604291210179809e-01) (14, 6.44349540268398301990e-01) (15, 2.37681561994462731136e+00) (16, 2.65074976472098822189e-01) (17, 4.12408530128885841837e-01) (18, 1.50631119225069509682e+00) (19, -2.08624732927600808896e-01) (20, 6.45023711538567412482e-01) (21, 3.07319136762727984635e-01) (22, -1.15045738657754115231e+00) (23, 1.73564133410551796333e-01) (0, 6.53360428343953691943e-01) (1, 8.43736021840862715493e-01) (2, 2.72280574720732193583e-01) (3, 7.07235301597047394395e-01) (4, 3.75721850980101745865e-01) (5, 6.46261952217927260200e-01) (6, 1.47147085110881009618e-01) (7, 2.54999467116225564389e-01) (8, 6.31906741164753649187e-01) (9, 3.23562904610629753499e-01) (10, 6.04150238778701109688e-01) (11, 1.01428469236233192996e-01) (12, 2.02484735232223017620e-01) (13, 5.97898837976302610642e-01) (14, 2.75923732086397976992e-01) (15, 2.79878018793424498956e-01) (16, 4.50053086434384491676e-02) (17, 1.26837068453184126371e-01) (18, 2.72180637784316170613e-01) (19, 2.02244012340397461003e-01) (20, 7.15145164969913316177e-01) (21, 6.20829294682737398148e-01) (22, -3.75053624446566868933e-01) (23, 1.88240603488313701375e-01) (0, 3.41881604749730561021e-01) (1, 6.80697684412689407729e-02) (2, 5.63988355469479230031e-01) (3, 7.02279284119085467353e-01) (4, 9.31460961383607566333e-01) (5, 2.07461452240672916680e-01) (6, 7.32075639738632710785e-02) (7, 5.19292478930725831532e-01) (8, 6.83630344031289860496e-01) (9, 9.53919845690429757390e-01) (10, 2.54831275100478593654e-01) (11, 3.02019261493260797458e-02) (12, 5.34586665701641705617e-01) (13, 7.48031449077562138328e-01) (14, 9.30713119973838876042e-01) (15, 1.20434234450088628599e+00) (16, 1.20749015484652430508e-01) (17, 6.94602411958147647475e-01) (18, 1.33464532915646416633e-01) (19, -1.36403901410403061156e+00) (20, 3.32976089562397437049e-01) (21, 8.78226877020264196094e-02) (22, 5.48389459575120349899e-02) (23, 5.07183594178940322372e-01) (0, 4.77502452026444923483e-01) (1, 2.95528323359201317011e-01) (2, 3.01982200834648328858e-01) (3, 3.93572187006766660566e-01) (4, 4.26058859989888294439e-01) (5, 3.67736391338683910046e-01) (6, 2.54134460916592030966e-01) (7, 3.04101839791731554108e-01) (8, 3.68697021417435377710e-01) (9, 3.16819874154446512460e-01) (10, 3.47125541034318751965e-01) (11, 2.46210217108788764762e-01) (12, 3.94949634689585882263e-01) (13, 3.85544830728437759593e-01) (14, 2.92680194186089426278e-01) (15, 2.41115703622223953584e-01) (16, 1.38951086186265088118e-01) (17, 1.95549556729899043361e-01) (18, 1.51136587127773253103e-01) (19, -9.71181116538750027756e-02) (20, 7.53613283802507805120e-02) (21, 1.15488900304380581741e-01) (22, -9.62892545173489183830e-02) (23, 2.31678900438986951071e-01) (0, 4.13146373006346767642e-01) (1, 4.88658983855026596288e-01) (2, 1.61331324074140053382e-01) (3, 7.58881667519019087464e-01) (4, 2.65938753619260059846e-01) (5, 3.98727366584313791531e-01) (6, 5.39952195896551301324e-01) (7, 2.29569638315310881049e-01) (8, 6.16582376645077756550e-01) (9, 2.12059374238429909632e-01) (10, 2.99096543225420397061e-01) (11, 4.73993567465717080545e-01) (12, 2.22562724891772673042e-01) (13, 7.37538413838594530958e-01) (14, 2.62095342661360530823e-01) (15, 3.58101910938781353710e-01) (16, 2.39623048968811480641e-01) (17, 1.76794793206189543300e-01) (18, 1.77160813338849865151e-01) (19, 2.43073152545651149925e-01) (20, 3.12110869304919713585e-01) (21, 1.31410350829200273104e-01) (22, 2.32893633136518118931e-01) (23, 2.07576917651763420691e-01) (0, 9.62446530366019681324e-01) (1, 2.97099104746721243142e-01) (2, 3.51657250653511388450e-01) (3, 7.56857002537053236146e-01) (4, 3.71174853072996913106e-01) (5, 6.99222178927057846920e-01) (6, 3.46673825576917560287e-01) (7, 3.38377305995230359681e-01) (8, 6.21237615254371711160e-01) (9, 2.67434893839919307634e-01) (10, 6.73638178764299322410e-01) (11, 2.70831359371546065429e-01) (12, 2.93868796657322628452e-01) (13, 6.26452783253638068039e-01) (14, 2.08182600990795579898e-01) (15, 2.09314103255917843827e-01) (16, 3.21472857631095645242e-03) (17, 1.23435748817653651033e-01) (18, 1.94098554488288860265e-01) (19, 3.42576766990483005948e-01) (20, 2.34843885257205453598e-02) (21, 4.03202455272859527913e-01) (22, 5.50394803391230036382e-01) (23, 3.25796106587650735609e-01) (0, 3.69703635350130122017e-01) (1, 5.45190422889039405518e-01) (2, 1.62763524141796928069e-01) (3, 6.15941278015039617166e-01) (4, 1.15507213789795204484e+00) (5, 4.68269121645201014115e-01) (6, 4.65166949761037784583e-01) (7, 1.39072754692916467079e-01) (8, 6.97136613824467010758e-01) (9, 1.98948765963362639297e-01) (10, 4.61836037038074465055e-01) (11, 4.69859042298917728431e-01) (12, 2.00460302916058152878e-01) (13, 6.39277897127989103154e-01) (14, 1.50673310130879756219e-01) (15, 4.23846185025194444052e-01) (16, 4.72992300547839458758e-02) (17, 1.92992644365755444680e-01) (18, 2.48811158405091020773e-01) (19, 3.10179537028248741848e-01) (20, 2.89776550175925573516e-01) (21, 4.73265421267293706631e-01) (22, 3.07447109453399203272e-01) (23, 4.08003658919439890496e-02) (0, 2.05027487747323988732e-01) (1, -2.64789781622858143642e-03) (2, 1.08653002559996644805e-01) (3, 1.02630890623240955684e+00) (4, 2.92119068471717091562e-01) (5, 4.44568430794291480357e-01) (6, 2.80106320196559580027e-02) (7, 3.25685154198269224968e-02) (8, 1.03289785055324290219e+00) (9, -2.13544129844448316025e-01) (10, 3.91995144797377570445e-01) (11, -2.69516416674680583943e-02) (12, 2.97579459397652283659e-02) (13, 9.55759393105909293986e-01) (14, -1.97925943400406478823e-01) (15, 1.18605068167048788297e+00) (16, 1.13492098267064092654e-01) (17, 4.65705579228944677173e-01) (18, 4.32421495275031875227e-01) (19, -1.36987684383146079981e+00) (20, 7.13929278277490975135e-01) (21, 1.34952981726986054323e-01) (22, -4.43642917416799953401e-02) (23, 3.24904482363323407479e-02) (0, 5.80528474875902089636e-01) (1, 1.35843943430022477681e-02) (2, 1.06945582688005302874e-01) (3, 5.01809584399735442162e-01) (4, 1.34339251103923723596e-01) (5, 5.48867664164010005123e-01) (6, -2.54212492762934602619e-02) (7, 1.17129997372775560005e-01) (8, 3.83444022254798677629e-01) (9, 2.17032092736199777594e-01) (10, 5.66000438159409480221e-01) (11, 1.75931438218294988740e-03) (12, 1.39325701654108763394e-01) (13, 4.58302790166590479082e-01) (14, 1.92884604559377142996e-01) (15, 2.87240166587860945580e-01) (16, 1.22903583374282893148e-01) (17, 3.78026784084124878316e-01) (18, -1.19410425530604956401e-02) (19, 2.54624978164710968898e-01) (20, 1.19738175260230575447e-01) (21, 8.83092689916451650811e-02) (22, 1.27152243514156937376e-01) (23, 1.11239508748203416721e-01) (0, 1.73942497418931529829e-01) (1, 6.06150035391337049795e-01) (2, 2.91002760223032508335e-01) (3, 6.21092967781107369030e-02) (4, 3.73046950473736538267e-01) (5, 2.93824536921549972490e-01) (6, 3.86808394218498496908e-01) (7, 2.82980922889815356136e-01) (8, 3.02602129286464627267e-01) (9, 2.88229752733418997934e-01) (10, 2.87621764661837753252e-01) (11, 3.63215216199560930743e-01) (12, 3.66087936378051592712e-01) (13, 2.95009685909685070992e-01) (14, 2.20580881862907612900e-01) (15, 4.61974753246202962664e-01) (16, -4.81596788064524786166e-02) (17, 2.83855714479345655477e-01) (18, 9.32655834154734741936e-02) (19, 8.82393839752255576547e-02) (20, 4.82443664914385839104e-01) (21, 1.08393179734133870973e-01) (22, 2.41698876733934697736e-01) (23, 3.47339086747695757751e-01) (24, 3.73849570621559157413e-01) (25, 1.84760349066259321749e-01) (26, 6.81386117259791777856e-03) (27, -2.22645212465329367379e-01) (28, -1.67676589608486303895e-01) (29, 2.11401382545720134543e-01) (30, 1.53403417784613999020e-01) (31, 3.10233192415200753622e-01) (32, 5.83402374025113121259e-02) (33, 2.04886999093465332900e-01) (34, -2.81414530709498955652e-01) (35, 2.01913879113108707397e-01) (36, -1.67864749928074485918e-01) (37, -2.59198549477463402457e-01) (38, 2.38596326670479919052e-01) (39, 2.93641475815050401188e-01) (40, -3.30077831223842654840e-01) (41, -1.63555405937595932375e-01) (42, -2.81932568772748082253e-01) (43, 2.15877122290284273465e-01) (44, -1.24144378721577616775e-01) (45, -2.35554758232275729402e-01) (46, 1.80753836980027254855e-02) (47, 1.72927142104560227498e-01) (48, 5.63342923442192500261e-01) (49, -1.22812723831095642335e-02) (50, 2.59531127533216936232e-02) (51, 1.07015194647625232205e-02) (52, 9.07081728585162894163e-02) (53, 3.19106971165560471260e-01) (54, 1.36799330039351855343e-02) (24, 1.16918213805156032126e-01) (25, 1.54073606392021028588e-01) (26, 2.15013239611801937334e-01) (27, -3.40280458423678211499e-02) (28, 6.13150676347340647943e-02) (29, 1.60597063558038849473e-01) (30, 1.06392303543790298082e-01) (31, 4.65890070222420224488e-02) (32, -2.38137337302259041727e-02) (33, 9.81844885291828367579e-02) (34, 4.93534813149390690079e-03) (35, -1.70121095393458127143e-01) (36, 1.18577453747292879682e-01) (37, 4.33994956227675837690e-02) (38, 2.18408872684234367512e-01) (39, -3.24252476420036697680e-02) (40, 2.17397714161747246386e-01) (41, 3.04737427578884480239e-02) (42, -4.14106691843827215416e-02) (43, 1.95519207318526178074e-01) (44, -1.12988313618730407129e-01) (45, 1.63397529602166302620e-01) (46, -1.89003915442477604669e-01) (47, 1.58858403928712615949e-01) (48, 2.11798147650289730892e-01) (49, 2.23515987158820955694e-01) (50, 3.60809891246027594769e-02) (51, 4.84429303002036126813e-01) (52, 1.60745559817935174118e-01) (53, 2.08913537384345621151e-01) (54, -2.75811434110919628804e-01) (24, -3.94294329224989734128e-02) (25, 1.75462566083346926948e-01) (26, -1.04203251504437890973e-01) (27, 4.33276096506824276444e-02) (28, 8.96043321951801169378e-02) (29, 2.10888592886530973347e-01) (30, 1.83705670580491670085e-01) (31, 1.81124797353561878266e-01) (32, 1.65381634962104728803e-01) (33, 2.37606142727997460273e-01) (34, 3.30180064523865279824e-01) (35, 1.86818072582128708037e-01) (36, 1.84198726253551964271e-01) (37, 5.05748701944455231194e-02) (38, 1.32693255258017034359e-01) (39, 3.93388637150160924705e-01) (40, 1.52496611612830179627e-01) (41, 8.18467806789140994717e-01) (42, -2.27291008851607523322e-01) (43, 1.44002959260874974223e-01) (44, 3.53777930916982175091e-01) (45, 1.83643369696944752656e-01) (46, 4.38416982531698973258e-01) (47, 2.64367774888371431796e-01) (48, 6.33225171024972555145e-01) (49, 5.09913737666481819977e-02) (50, -2.70616545357312728026e-02) (51, 3.48742346130349767375e-01) (52, 1.30831355930241477470e-01) (53, 2.30047702862847508465e-01) (54, 3.01332170305521673814e-01) (24, -2.55516560183317642529e-01) (25, -1.47583834044747119751e-01) (26, -3.21058321061745588487e-01) (27, -1.57670903155724476119e-02) (28, -1.61135209598927492403e-01) (29, 6.88742845945415071984e-02) (30, 9.15038457539001613694e-03) (31, 1.01081142830152827250e-02) (32, 3.53965010710067112809e-02) (33, 7.06473607821984372901e-02) (34, 1.63185811809534342398e-01) (35, 1.24388893650762208387e-01) (36, 2.48854837610736012721e-01) (37, -2.44629890168281655116e-01) (38, 2.34982056262271789271e-02) (39, 1.13820644731944267680e-01) (40, -9.79076102311749185692e-02) (41, 1.42427832451498287414e-01) (42, -2.75362822860068856556e-01) (43, 4.52759288251624453236e-02) (44, 1.43575820682603327860e-01) (45, -1.28528711516505245172e-01) (46, 2.88837662152581720054e-01) (47, -2.77334120298716624298e-01) (48, 4.57388906564863695348e-02) (49, -2.91528613743017417370e-01) (50, -9.55133587887505575154e-02) (51, 2.32008698053421641427e-01) (52, 7.63582104441329484468e-02) (53, -3.09861958312371121860e-01) (54, 6.71902191701656326117e-01) (24, 2.88326584988296830137e-01) (25, 3.63505038739750763188e-01) (26, 5.92849273845092797353e-02) (27, 1.33193308518661346351e-01) (28, -1.46730264811656491153e-01) (29, 1.62040929566157565489e-01) (30, 2.77181223786902464212e-01) (31, 1.86772024857924573427e-01) (32, -1.79122090630093877550e-02) (33, 4.10279747986163012552e-01) (34, 2.79496429879406808883e-02) (35, 1.30158345896061150571e-01) (36, 1.93294553935225044139e-01) (37, 1.29599507812143660557e-01) (38, 2.36832377713905972705e-01) (39, 7.66927252818982857496e-02) (40, -7.25903169947140991525e-01) (41, 2.24727652928731563842e-01) (42, -1.21875100292001381508e-01) (43, -3.04615547986317146412e-02) (44, 4.34056031142870599182e-03) (45, 2.69625143771029140982e-01) (46, -2.40498696986512910945e-01) (47, 3.51304207061788442701e-01) (48, 1.96880002730792230681e-01) (49, 1.32944373924416464616e-01) (50, -4.22053351185063874151e-01) (51, -1.96865232879913591019e-03) (52, 3.67223550241577878506e-01) (53, 2.71338637029826246216e-01) (54, -1.23650813575063772687e-01) (24, -1.54634042632418977625e-01) (25, -1.20193047958740251158e-01) (26, -3.55135530399510790378e-01) (27, 2.50867480012959609414e-01) (28, -2.12251361326586590605e-01) (29, 1.43772394310538592643e-01) (30, 1.92711961783384039260e-02) (31, 6.98193316666489288691e-02) (32, -9.78326079844290402709e-02) (33, -1.23508768784885578085e-01) (34, 4.18438598471558564906e-02) (35, -6.84513857924802682220e-01) (36, -9.81990925612029608160e-02) (37, -2.21145413134693519241e-01) (38, -5.50428154886967932469e-02) (39, -4.95789798230360012621e-01) (40, -1.11536535937161243592e-01) (41, -1.25063424034234010884e-01) (42, -1.12065441195649748152e-01) (43, -1.94109060601275196234e-01) (44, 3.61164573752201512047e-02) (45, -2.08649775240883961214e-01) (46, 1.69433550214358435992e-01) (47, -3.27287376791633444206e-02) (48, -1.74196769485503194508e-01) (49, -2.34314704614922791892e-01) (50, -1.90325607232060406426e-01) (51, 1.14298738721126280637e-01) (52, -2.54265751350171535783e-02) (53, -1.38456009788713474418e-01) (54, -2.78155549346776886921e-01) (24, -1.63496002624530623049e-01) (25, -8.34304936265039681631e-02) (26, -3.36271601258441521498e-01) (27, 1.42673395979543732315e-01) (28, -1.42150219184677045758e-01) (29, 6.98387681982243907486e-02) (30, -2.03742989081232839244e-02) (31, -5.51215139896497827166e-02) (32, -1.78097874585794624380e-01) (33, -5.79950115529362306144e-02) (34, -1.79045972650270727305e-04) (35, -6.97840786457784467700e-01) (36, -2.14720450315225658278e-01) (37, -1.71710212257014660509e-01) (38, 2.46849976032384303172e-04) (39, -6.02638566297233557734e-01) (40, -1.33676136075888796206e-01) (41, -9.04610530985556493544e-02) (42, -1.18438997003155216392e-01) (43, -1.71475589370729986083e-01) (44, 2.42470877217211173982e-02) (45, -1.52440910921741556994e-01) (46, 9.77986560143566524550e-02) (47, -1.13685462728507380437e-01) (48, -1.22865627981577837935e-01) (49, -2.87510834221256117438e-01) (50, -1.39218414430670678339e-01) (51, 5.15808347735279629220e-02) (52, -9.67564671602992865118e-02) (53, -1.02654991249811172738e-01) (54, -3.25425363881497176077e-01) (24, -5.57977184068490610069e-03) (25, 1.25506107113149745214e-01) (26, 9.33017600010077746697e-02) (27, 4.69755585497699523767e-01) (28, -5.02321231156745325042e-03) (29, 3.16506430093993651465e-01) (30, -2.24340525988661471102e-02) (31, 4.26947434976971074150e-01) (32, 8.88257872440640916523e-02) (33, 3.24966651260353400765e-01) (34, -2.06515470852870197671e-01) (35, -1.29153379808446905352e-01) (36, 2.15037430055142586571e-01) (37, -2.34810135513611739633e-02) (38, 4.84156551268569212976e-01) (39, -3.21948883913412586821e-01) (40, 1.04571835498203591364e-01) (41, -2.40820446893232481544e-01) (42, 6.90500705255685937045e-02) (43, 5.40850736396111531068e-02) (44, -1.69058051813247123274e-01) (45, 8.34630409029003678123e-02) (46, 2.51364520781867592514e-02) (47, 3.86858836857474630566e-01) (48, 1.06650056977290047522e-01) (49, -7.64567887086242746301e-04) (50, 1.28982371214550389782e-01) (51, -9.57245730087454976820e-02) (52, 1.54474566905682592077e-01) (53, 3.67284133391650724487e-01) (54, 4.98240991460133023083e-02) (24, 2.71626028865405488855e-01) (25, 2.08555177888267662123e-01) (26, 1.34760227712405228351e-01) (27, 8.59636326705493641898e-02) (28, -9.94089823368902864020e-02) (29, 4.70590914619150382792e-02) (30, 1.31607455725956501436e-01) (31, 3.44491644258517248911e-01) (32, 1.03508969423345892347e-01) (33, 2.09794735322995445914e-01) (34, -6.47646513730518458285e-02) (35, -1.36121322773245206905e-01) (36, 6.77950924135387184011e-02) (37, 8.22411283282807048511e-02) (38, 1.86906647685488008781e-01) (39, 5.25299822358571595615e-03) (40, 2.99722409304258807783e-01) (41, 3.34605343280666933659e-01) (42, -1.16711743463816436384e-01) (43, -1.69293335561599561645e-01) (44, 7.91965828532351506786e-02) (45, 6.56468101077852805858e-02) (46, 1.27790807491910296534e-01) (47, 2.43088776551322077735e-01) (48, 3.53339908607046893074e-01) (49, 1.67552183694408218795e-01) (50, 1.31037281797624666213e-01) (51, 2.10039218896866317077e-02) (52, 1.26995667683177604346e-01) (53, 3.35357434213775118526e-01) (54, -3.40418968034234936670e-01) (24, 2.69258630813026145212e-01) (25, 4.29472333324058985760e-01) (26, 3.00551489162951546152e-02) (27, 3.42731314873863712744e-01) (28, 1.47212527209670290818e-01) (29, 5.62082713607969131075e-01) (30, 1.43078178774335013079e-01) (31, 1.71661978194425107747e-01) (32, -1.24215379691482286084e+00) (33, 2.94191306985107314809e-01) (34, 3.99770514778137964207e-01) (35, -2.40203381347251290756e-02) (36, 2.86722879016426679399e-01) (37, 1.68555132036166871456e-01) (38, 5.63516841250977007505e-01) (39, -6.37503052928408905919e-03) (40, 1.30678594207085607692e-01) (41, 4.58158647424826648287e-01) (42, 2.33614176898019360040e-01) (43, 1.94382400495708040911e-01) (44, -9.25777379949715567564e-02) (45, 2.91217504199340060378e-01) (46, -2.73559161733648970039e-01) (47, 3.71185305100803053513e-01) (48, 6.94373425959242895900e-01) (49, -2.00089819087348685933e-01) (50, 1.86931607007867178760e-01) (51, 2.34600247535728445580e-01) (52, -3.17929402878322608927e-01) (53, 4.15042817298554023164e-01) (54, -2.62487715107002916870e-01) (24, -6.61374159318787596673e-02) (25, 1.45516880921021773965e-01) (26, 2.05703411669814727192e-02) (27, -8.84613380864233800338e-01) (28, -1.33570997800313812087e-01) (29, -4.05211846157788879719e-02) (30, 3.59159494197517289993e-02) (31, 9.67610845195403940222e-03) (32, 1.44637265716991952891e-01) (33, -1.00463195463182786149e+00) (34, -1.06193038868197892066e-01) (35, 1.19700460480146639308e-01) (36, -1.93373659453112439754e-01) (37, 7.90606177161186640667e-02) (38, -7.50113313985334290157e-02) (39, 4.28272291253592243820e-02) (40, 1.29923927011072554150e-01) (41, 2.79932406552698409552e-01) (42, -1.00247531127808653384e-01) (43, -2.39048006413067448683e-01) (44, -9.05886163399824972942e-02) (45, 3.06822759107802170431e-02) (46, 3.09330017773190857344e-02) (47, 9.14723600938311676156e-02) (48, -7.67116938198441483676e-02) (49, 2.39889462543074805101e-01) (50, -9.25642553047145016931e-02) (51, 1.77724316190900039070e-01) (52, 1.09417294815959367793e-01) (53, -1.98261409654897843846e-02) (54, -1.58429010126507363587e+00) (24, 3.68959659005788809250e-01) (25, 4.17206175469591822313e-01) (26, 2.02818172813635871909e-01) (27, 3.02968479126674461455e-01) (28, -1.23880952880815048411e-01) (29, 3.00289711807575632196e-01) (30, 5.56517167643778676300e-01) (31, 3.38263279807068328875e-01) (32, 1.14572208029192282308e-01) (33, 6.13173466407847977955e-01) (34, 1.61228293030911518091e-01) (35, 1.67176908676007401899e-01) (36, 3.68102650287178478905e-01) (37, 2.47818540482065891029e-01) (38, 3.50877566139918217747e-01) (39, 2.02605275199388978891e-01) (40, 1.75905732759037633506e-02) (41, 2.97143326905207005861e-01) (42, 2.59534855766141547839e-01) (43, 4.19840846421820734768e-01) (44, 4.56888906177170192602e-02) (45, 2.73979736208804280917e-01) (46, 1.41620728844730897622e-01) (47, 4.52593782414486223153e-01) (48, 3.97904447228598190378e-01) (49, 1.06307397686698862360e-01) (50, 3.57702850920079418184e-01) (51, 1.08534266639132861987e-01) (52, 4.23199504140518323325e-01) (53, 6.93864743140801154553e-01) (54, 1.45421735309552241366e-01) (24, 3.46672437249486098398e-01) (25, 4.21189102259250047755e-01) (26, 2.30833737138549266454e-01) (27, 2.38720928480105343272e-01) (28, -1.38664895844414659543e-01) (29, 3.36557223699280927409e-01) (30, 1.46239954941674438205e-01) (31, 2.20907248710346892917e-01) (32, 1.06111970176495429286e-01) (33, 3.85824341655148006502e-01) (34, -1.26067522039863350036e-01) (35, -1.42181527297107757057e-01) (36, 1.58712944770620145718e-01) (37, 2.65784910590298018018e-01) (38, 2.72244627390635707265e-01) (39, 5.37079439954491009296e-03) (40, 2.09896667967624933615e-02) (41, 4.02395186600554899403e-01) (42, 2.87944115678465006880e-01) (43, -1.94144632756116264360e-01) (44, 2.07154511735031215958e-01) (45, 2.76136429240267544660e-01) (46, 1.22083300517132786744e-01) (47, 4.66086917831987246341e-01) (48, 4.67347970593926131944e-01) (49, 3.16245937106937158312e-01) (50, 2.23157681993615519822e-01) (51, 1.15782889351504839071e-01) (52, 3.14577625978011699015e-01) (53, 4.27094433073197887740e-01) (54, -5.19114507776689437790e-01) (24, 4.45762131565220542928e-01) (25, 4.10797644597920008636e-01) (26, -1.85226946940165143607e-01) (27, 3.70278277442571135403e-02) (28, -4.15355700046799100611e-02) (29, 1.65860167772236000161e-01) (30, 3.60239977924581011859e-01) (31, 4.31717354957977639263e-01) (32, 3.73626271834535603200e-02) (33, 9.83615938532426681284e-01) (34, -1.06379917262487397323e-01) (35, -6.95285151162593151319e-01) (36, 1.90557261707088365643e-01) (37, 2.34504757248602729858e-01) (38, 4.82271498078450822078e-01) (39, -4.55473245196831355575e-01) (40, -3.40679544079641391519e-02) (41, 1.76695801167214838756e-01) (42, 6.92588087304088911855e-02) (43, 1.59910615355466911858e-01) (44, 2.89266462420282033374e-01) (45, 2.23289009880875466418e-01) (46, 3.55551741886520333846e-01) (47, 3.92127472146591216084e-01) (48, 8.03229486573802775595e-01) (49, 3.35351142439517746485e-01) (50, 1.83420155022075176410e-01) (51, 3.33545193858077126947e-01) (52, 2.58807492878144418391e-01) (53, 7.11305265929869090513e-01) (54, 5.01465819640196985851e-01) (24, 4.52206075771901916394e-01) (25, 3.97271254628053682723e-01) (26, 1.22547255266799534623e-01) (27, -4.07652288140578564213e-02) (28, -2.09116628774353247033e-01) (29, 1.56089719412461219727e-01) (30, 3.10242186443265788309e-01) (31, 1.92221409433099676978e-01) (32, -7.63129178626582999057e-02) (33, 2.31351924233283601229e-01) (34, -4.41367642980463464886e-03) (35, -1.50259261959155457182e-03) (36, 1.32340466897260838897e-01) (37, 1.05982908320348345743e-01) (38, 3.37699600321112625156e-01) (39, -4.30762069148024964726e-03) (40, -8.70397777142611767109e-02) (41, 1.96988243277885194393e-01) (42, -1.27253137238208247073e-02) (43, 3.74858542789780757598e-02) (44, -3.09081659012653608976e-01) (45, 3.00702350711137933459e-01) (46, -9.88735320904659317071e-04) (47, 4.33173881843060326613e-01) (48, 4.32448271092375158275e-01) (49, 1.68886741200926310258e-01) (50, 2.49266227026709891179e-01) (51, -1.85672216828856762039e-01) (52, 3.22048201886079243916e-01) (53, 4.69480108597121359448e-01) (54, -1.99130813975964493512e-01) (24, 4.64928958841613393371e-01) (25, 5.01639711279535882582e-01) (26, 1.84359917932580053002e-01) (27, 2.15130223813638749020e-01) (28, -4.28709491262260974920e-02) (29, 1.76782793398122167750e-01) (30, 3.07400568541459084937e-01) (31, 1.35936909023824326059e-01) (32, -4.04454361413352711518e-02) (33, 1.32422119005537708425e+00) (34, 1.32935929796735269326e-01) (35, -4.34389587819722811091e-01) (36, 2.04254532718290082727e-01) (37, 1.86043757614861415828e-01) (38, 4.14237347581898174287e-01) (39, -3.87559448786873039783e-01) (40, 4.42878266753102527858e-03) (41, -2.11676819702641627607e-01) (42, 2.65788112451696201255e-01) (43, 1.73140692549727581717e-01) (44, 2.19067506977689840930e-01) (45, 3.63674199382511609269e-01) (46, 1.65584559909173451020e-01) (47, 4.08004482811075097626e-01) (48, 3.89911638443092956052e-01) (49, 2.06906662533072799315e-01) (50, 2.98748846757210251290e-01) (51, 1.46000398316792873166e-01) (52, 3.37223207244904066293e-01) (53, 4.62623940654000032069e-01) (54, -9.08981860700705801559e-02) (24, -4.52146699684150554788e-02) (25, -1.74519659986181935318e-01) (26, -3.35185795975539324587e-01) (27, 6.97835466214969668552e-02) (28, -2.44996370646267780380e-01) (29, 1.03627903017269762387e-01) (30, 3.27177830222331531007e-02) (31, 2.95964653492340008453e-03) (32, -7.43561085163973595202e-02) (33, -1.35986952794472926165e-02) (34, 4.56488757275652745626e-01) (35, 2.29509880190774361031e-02) (36, 4.34256708966599611066e-02) (37, -1.47063721257175955559e-01) (38, 1.14771111617721896514e-01) (39, -2.18702151460472754563e-01) (40, -6.36742479242092124236e-02) (41, -9.89310547089777281293e-02) (42, -3.83405944807279019937e-01) (43, -1.51098066651974255459e-01) (44, 8.19423482734388530790e-02) (45, -1.70870817391689855391e-01) (46, 1.36295241091889035578e-01) (47, 4.95695706121403248390e-02) (48, -1.44980322709634346090e-01) (49, -2.31504260340682832542e-01) (50, -1.05999570686455477087e-01) (51, 2.80953925225284173450e-01) (52, 6.86764943690602175375e-02) (53, -2.09475926915905601156e-02) (54, -5.43110543053903271904e-01) (24, 1.20549391100267369592e-01) (25, -2.40582962318156602655e-02) (26, 3.05746716170369026155e-01) (27, 3.47669325819075891726e-01) (28, 3.45745772358510783384e-01) (29, 2.57183498112206032626e-01) (30, 8.56734460128692892900e-02) (31, 1.97232885358049725433e-01) (32, 2.14398431328617439240e-01) (33, 3.05667734277581190638e-02) (34, 3.14530597562036440262e-01) (35, 1.61254285950676368167e-01) (36, 2.53963578555343960641e-01) (37, 2.25939561447532855087e-01) (38, 1.59484189852826557798e-01) (39, 2.54058173581919344297e-01) (40, 2.32999359625926383277e-01) (41, 2.06839763159517908697e-01) (42, 1.04614949215277386330e+00) (43, 1.61887347661549940714e-01) (44, 4.77446947566308232958e-01) (45, 5.28235494824313284168e-03) (46, 2.92680609453480955473e-01) (47, 1.64100476847437226624e-01) (48, -9.05992661975471916258e-03) (49, 1.67474570926773896895e-01) (50, 2.27043464830882057992e-01) (51, 4.08749756124005492186e-01) (52, 1.84604171730825633579e-01) (53, 1.41281892947763471069e-01) (54, 2.91377819895016543228e-01) (24, -1.78253988322299716796e-01) (25, 1.18591398963941940803e-01) (26, -1.62070857803153917098e-01) (27, 8.11909649387661108699e-02) (28, -1.74636489816696632849e-01) (29, 5.50037530472909652612e-02) (30, 2.00701447842143609890e-01) (31, 3.03368655751418303534e-01) (32, -2.73429895345131124262e-02) (33, 1.79158913259818364239e-01) (34, -2.99028610089944080208e-01) (35, -1.83534950856148293408e-01) (36, -1.33837566632250049015e-01) (37, 6.73097825273835798088e-02) (38, 1.89710201404985651097e-01) (39, -4.12209884123908229525e-02) (40, -1.29754123241914102321e-02) (41, 6.42376224414270557972e-02) (42, -4.59396931738473346396e-01) (43, -1.90378638416338313855e-01) (44, -5.79908971297021375024e-02) (45, 5.10523451395207064629e-02) (46, 3.79396165598355691873e-02) (47, 2.06717358965775727109e-01) (48, 2.28188830626234184784e-01) (49, -1.11657077629006996206e-02) (50, -1.43429956261987096022e-01) (51, 9.37141159851340686815e-03) (52, 1.91107291183035488125e-01) (53, 8.84323608741100913866e-02) (54, -1.78921122135837940004e-01) (24, 1.78024349051559005463e-01) (25, -5.75409622422879962755e-02) (26, 6.11176097864371409285e-02) (27, 2.93218494873956174451e-02) (28, 1.05490823508296832633e-01) (29, 1.04951343945475644714e-01) (30, 9.37351105202205436839e-02) (31, 1.10891762963625017946e-01) (32, -3.22525623281632173311e-02) (33, 2.52348019316263050271e-02) (34, 3.05600904081958557601e-01) (35, 7.62678652510206528392e-02) (36, 9.42443966850726455586e-02) (37, 5.72218667586612064757e-03) (38, 9.63089113362394361184e-02) (39, 2.10726539608191459907e-01) (40, 1.66165224548598333687e-01) (41, 1.59119027005730745428e-01) (42, 6.59735620916804405001e-02) (43, 2.54635899990350744737e-01) (44, 2.41646563301486871911e-01) (45, -7.86628077163900180091e-02) (46, 1.23337801933126101073e-01) (47, 5.96277164038337137431e-02) (48, 4.38296192009348523078e-02) (49, 7.45148658179912437571e-02) (50, 8.22452167662024863359e-02) (51, 2.44916166100094034874e-01) (52, 1.37551650305293343690e-01) (53, 2.74925129460023565109e-02) (54, 1.54104054151968400399e-01) (24, 2.41220645537696259941e-01) (25, 5.91237924068380160669e-02) (26, 5.03272837876043918626e-02) (27, 4.80140152598809433204e-02) (28, 3.66368698580809629139e-02) (29, 2.49987242461479325373e-01) (30, 1.26732454686180634473e-01) (31, 1.95040728140592561912e-01) (32, 4.72221721306457509204e-02) (33, 2.11815661579749875409e-01) (34, 3.45533902256815905751e-01) (35, -4.46169576647730270480e-02) (36, 2.68218892406733244727e-01) (37, -3.31309545556154119716e-02) (38, 2.20457231373220707837e-01) (39, 1.95412452774930758825e-02) (40, 1.20957783424731971089e-01) (41, 1.96949914926656005632e-01) (42, 7.38125098363419662739e-02) (43, 4.61878742076939741157e-01) (44, 1.76753140308036571504e-01) (45, 9.96281127491122908690e-02) (46, 3.85483478797598422272e-01) (47, 2.14499457125013365255e-01) (48, 2.37873819892095939021e-01) (49, 5.77871420334544125263e-02) (50, -1.84413281979317507375e-02) (51, 1.33333982043850746146e-01) (52, 9.21506796327312832640e-02) (53, 1.60011856016241182932e-01) (54, 1.73862238357831350166e-01) (24, 3.16257049184232086336e-01) (25, 2.86994865512205488134e-01) (26, 7.32350566758678267476e-02) (27, 1.46162534324498077920e-01) (28, 1.86944975918832079209e-01) (29, 2.58370192708958279493e-01) (30, 3.14942842970065195463e-01) (31, 6.71341740465415809380e-02) (32, 5.51678725109587819730e-01) (33, 3.45837431570341580223e-01) (34, 3.19806115894031461888e-01) (35, 1.65800075870511348652e-01) (36, 2.96320027386340945075e-01) (37, 2.00777871186966716532e-01) (38, 1.76941309637746263528e-01) (39, 1.74908868983368853689e-01) (40, 1.29099405191455907094e-01) (41, 2.27189564082566380909e-01) (42, 2.20603455516180213536e-01) (43, 4.32398289286207215820e-01) (44, 3.82385110551892892783e-01) (45, 1.11197140396280050312e-01) (46, 2.41961988078635698018e-01) (47, 2.24402549539305301574e-01) (48, 4.51623068645325365100e-01) (49, 1.55313699690344086957e-01) (50, 1.20480345373335420711e-01) (51, 3.78714532683252613765e-01) (52, 1.89251398248975355454e-01) (53, 3.04506605562178067625e-01) (54, 1.03048775796523536807e-01) (24, 3.50118866181342754118e-03) (25, 1.61275386433694489785e-01) (26, 3.21423235991242117748e-01) (27, -1.09073685202744227740e-01) (28, 2.63804233660135223349e-01) (29, 1.78715054689831676082e-01) (30, 1.56498447578087757082e-01) (31, -9.65766322050688880152e-02) (32, 1.89200637191681841909e-01) (33, 2.47142115600819702037e-02) (34, 3.19972611613305313316e-01) (35, 9.42357074665553795523e-02) (36, 4.27079456570259086146e-01) (37, 1.55131652025772490133e-02) (38, 2.61432962620868680759e-01) (39, 8.59772698530012757789e-02) (40, 2.01267112071928877537e-01) (41, 7.36588947167971103136e-02) (42, -8.50347573556891472846e-02) (43, 3.34966694828499556014e-01) (44, 1.71028070071119059348e-01) (45, 3.19128587395824531159e-02) (46, 8.77567940902452825469e-02) (47, 8.26669472634178476023e-02) (48, 8.38939253405920071227e-02) (49, 1.91695122201648637805e-01) (50, 1.04069013040379895751e-01) (51, 3.06019132271913130161e-01) (52, 2.30711222208550698065e-01) (53, 8.06752659070780059336e-02) (54, -3.98225444632713310167e-01) (55, -5.53555690935629701732e-02) (56, 4.63420704318826981449e-01) (57, 6.13935910225421876962e-02) (58, 1.68733468377312539888e-01) (59, -8.96963799893939622843e-02) (60, 4.20669276067709263511e-01) (61, 2.77639930796847789196e-01) (62, 2.17335527086527230400e-01) (63, 2.40245559070302039384e-01) (64, 2.60293079152240536267e-01) (65, 1.03852326692871060887e-01) (66, 2.36805822182890507444e-01) (67, 1.56035728732842521316e-01) (68, -6.45449097938613214342e-02) (69, 7.04135761494553563677e-02) (70, -1.93178318068463923673e-02) (71, 3.97528529348263715004e-01) (72, 8.41190427230718684726e-01) (73, -5.40228017629370699249e-02) (74, 6.39006321298292268018e-01) (75, 5.29854294441998052712e-01) (76, 2.89133290276434917754e-01) (77, 3.39616184719566616135e-01) (78, 6.41049571170094201200e-01) (55, 2.06027301217391045629e-01) (56, 9.07537954156110604487e-01) (57, -5.21901874938401830195e-02) (58, 2.66628499212369418636e-01) (59, -1.00020170128203550464e-01) (60, 1.53891526973939707368e-01) (61, 1.04549202896065174251e-01) (62, 9.48069025122378200576e-02) (63, -1.22128310828404224031e-01) (64, 4.05266750206966341885e-01) (65, 2.56712487199999783716e-01) (66, 4.12163915936292757358e-01) (67, -9.98101927633296831521e-02) (68, -9.77126264310050618445e-03) (69, 1.12119042883151262546e-01) (70, -1.33270779339156819621e-01) (71, 9.30049857690155162837e-02) (72, 3.15822730181791244686e-01) (73, 1.54010040241712824194e-02) (74, 3.59311864101265809879e-01) (75, 8.34156961042478578561e-02) (76, 1.43610836270000624681e-01) (77, 4.32929831283625332627e-01) (78, 2.88756519644596809648e-01) (55, 6.38355091635401349082e-03) (56, 1.78722295010044496255e-01) (57, 6.00197069059428545135e-02) (58, 2.65645311817076401617e-01) (59, 1.12496554839798160175e-01) (60, 1.86939777839939480497e-01) (61, 1.39323355205132642931e-01) (62, -1.67391895211210117722e-01) (63, 1.42576460047185743507e-01) (64, 5.70117398202313552247e-01) (65, 5.14594301758335870289e-01) (66, 9.43057007583157774766e-02) (67, 9.23454845469592611185e-02) (68, 3.99887744914777243377e-02) (69, -2.73782479659689728657e-02) (70, -7.60109905817916847726e-02) (71, 2.92548109334512196344e-01) (72, 4.63308676207189129581e-01) (73, 1.33591043698538997075e-01) (74, 3.91153918587164695086e-01) (75, 1.01821986608824174847e-01) (76, -2.65012021504251009396e-02) (77, 5.74515568011400024062e-01) (78, -1.88044885651451554320e-01) (55, 1.18966248146012781861e-01) (56, 1.42519325748024006106e-01) (57, 2.69632226248766648791e-01) (58, -3.41311093004780033433e-02) (59, 1.67634846431723022464e-01) (60, 2.83073746656107121111e-02) (61, 1.72276918623474571690e-02) (62, 5.93443741643954747467e-02) (63, 1.26792264031093504517e-01) (64, 3.98221217088118792371e-02) (65, 2.40229727484784133518e-01) (66, 1.10961326177640762225e-01) (67, 1.21403033003514210231e-01) (68, 1.69487153982388311091e-01) (69, 1.82229817304512958787e-01) (70, 1.99925150532694502481e-02) (71, -1.60326753720414244553e-01) (72, -8.75810061926195482229e-02) (73, 1.11501726782646859437e-01) (74, 1.46350677650025240428e-01) (75, 4.82470299600401275608e-02) (76, -3.23166121119839409859e-03) (77, 1.74608077217008134108e-01) (78, 3.90082629211397025060e-01) (55, 6.40464676566047802497e-02) (56, 7.24277181086425692058e-01) (57, -3.20066445422483511485e-02) (58, -4.97257267782532541567e-01) (59, -2.29569673952098318725e-01) (60, 1.83625616656504231372e-01) (61, 2.02492045661951031166e-01) (62, 1.17737899550230631918e-01) (63, 7.32196002221425362722e-02) (64, 2.16709321670603444199e-01) (65, 6.30701275114354739659e-03) (66, -4.31172028534089410434e-02) (67, -2.74652186198634344627e-02) (68, -1.20005638979809470951e-02) (69, 2.61820800826254862503e-01) (70, 3.06160787485911189965e-01) (71, 5.05417531954428997376e-02) (72, 4.07460577402761259247e-01) (73, -1.92281693795343128217e-01) (74, 2.25122226292569366235e-01) (75, 5.28816014261810574126e-01) (76, 2.81417567508008448218e-01) (77, -2.21143618717140694185e-01) (78, 7.72615413123177052768e-01) (55, 3.81724164300305424113e-01) (56, 5.62515416122297939872e-01) (57, 3.13826689917142243047e-01) (58, -1.33889717543339087369e-01) (59, 4.19620615406287977844e-01) (60, 4.00440941838221375892e-01) (61, 4.73286081739345554364e-01) (62, 3.62135084379707483659e-01) (63, 2.15318962988286399796e-01) (64, 7.53871137481979952666e-02) (65, -6.40349295384184669100e-02) (66, -2.35913209964336463564e-02) (67, 2.39705432579869592846e-01) (68, 2.50795031795663092566e-01) (69, 5.74144968589082704824e-01) (70, 2.60092306468546918818e-01) (71, 1.56381682982053377140e-01) (72, 3.42435528827787161177e-01) (73, 2.24108346224309057382e-01) (74, 3.32852372382677230700e-01) (75, 1.39312429780287710956e-01) (76, 1.38065075603538617299e-01) (77, 3.61820922564496438856e-01) (78, 2.06853256133310126064e-01) (55, 2.15430172919540197096e-01) (56, 5.85369999987441769207e-01) (57, 1.68983990477931639296e-01) (58, 5.71675707827041024167e-01) (59, 1.61739356970979047956e-01) (60, 6.27862730523695233842e-01) (61, 5.98624812865145683460e-01) (62, 5.70328633737104961909e-01) (63, 1.81138969791216852823e-01) (64, -1.52102826025909493302e-01) (65, 2.87997928790601431803e-01) (66, 3.00767501860323638319e-01) (67, 1.53310647548194789458e-01) (68, 9.16525806152972966068e-02) (69, -1.31355541655418135705e-02) (70, 4.01332910945417731252e-01) (71, 9.26666059703691202820e-01) (72, 1.80368464905445446966e-01) (73, 1.05897189170529495983e-01) (74, 2.02399346584678119232e-01) (75, 2.49239271338521743704e-02) (76, 2.99550656149694338737e-01) (77, 9.06563273202734887235e-01) (78, -1.81354699420071846516e-01) (55, 6.36341693023338983437e-02) (56, -1.57686288593637091715e-01) (57, 2.06922271430019844018e-01) (58, 2.85949143829909047110e-01) (59, 2.80545592116666353544e-01) (60, 9.05551747875831258838e-02) (61, -4.07728833077404401175e-02) (62, -6.66186815300744417101e-02) (63, 1.41402718733906695991e-01) (64, 3.85240249173311233299e-01) (65, 4.72051791109710683347e-01) (66, 3.12255031103875535514e-01) (67, 1.45294629330660646227e-01) (68, 1.98389230100322611072e-01) (69, 9.85483968781372503265e-03) (70, -5.73854659882991613440e-02) (71, 2.12778813597347404851e-01) (72, 2.95121191765231494220e-01) (73, 9.26509877249887953132e-02) (74, 4.96426956641147554272e-01) (75, 2.71585887915752499655e-01) (76, 1.47199662387280716391e-01) (77, 1.78644400741325620752e-01) (78, -4.17861774774656469233e-01) (55, 4.77360960701162129194e-01) (56, 3.80384624624604483767e-01) (57, 2.39446386023430157763e-01) (58, 6.97813893664438911202e-01) (59, 3.36305099533586615568e-01) (60, 6.36581010554900239562e-01) (61, 5.63300170396453303567e-01) (62, 4.14145921615666379179e-01) (63, 2.35481339276284784567e-01) (64, 3.97466487050815109328e-01) (65, 2.36353825259894206878e-01) (66, 1.32603058757800734702e-01) (67, 3.84156303022587020113e-01) (68, 2.72871250969322742819e-01) (69, 5.62832555265537104461e-01) (70, 5.05137415484185448022e-01) (71, 2.69773889291744228824e-01) (72, 1.79335498952575389531e-01) (73, 4.80179612139503220192e-01) (74, 1.87655102671747092691e-01) (75, 5.34517495682059640139e-01) (76, 5.16552834938671101561e-01) (77, 2.76874066450842060139e-01) (78, 3.79357127879549838045e-01) (55, -8.59616692235145307688e-02) (56, 6.72230346913519349883e-02) (57, 5.73928494377428516371e-02) (58, 3.21626921555048350676e-01) (59, 1.28887832586391748446e-01) (60, 1.96634619860767440036e-01) (61, 1.85022831938188414558e-01) (62, -1.68897281973755031270e-01) (63, 2.49548161617873021090e-01) (64, 5.06135314252571855143e-01) (65, 4.38602060933089121786e-01) (66, 1.14025084508308741094e-01) (67, 7.59945022607467907116e-02) (68, 1.56622924572834935908e-02) (69, -4.60748313159607819633e-02) (70, -9.62131926546985621895e-02) (71, 2.38853268943890334475e-01) (72, 4.10267832820587097231e-01) (73, 8.31172172155878047350e-02) (74, 4.54413770748320566817e-01) (75, 8.69752172384069405231e-02) (76, 5.36993158080402346183e-03) (77, 1.87288285944821469853e-01) (78, -1.93909227680459428367e-01) (55, 1.32360577090383541021e-01) (56, -2.40656028308725206122e-01) (57, -1.93646331320998343895e-01) (58, 8.85856847162542648810e-01) (59, -3.04555738522323593553e-01) (60, 5.08668904362040152911e-01) (61, 4.51742382791719132573e-01) (62, 2.09465792883148704817e-01) (63, -4.19532069943126084688e-01) (64, 1.22568569421219117355e-01) (65, -5.47637577350642140717e-02) (66, -2.47526139143776940932e-01) (67, -1.67964987304571211624e-01) (68, -2.67208644969121666968e-01) (69, -1.31580110846154951787e-01) (70, 9.55598312871426373849e-03) (71, 1.55634837650577978474e-01) (72, 5.80385007369605757099e-02) (73, 6.66858503910032346385e-02) (74, 3.06857066286965809998e-02) (75, 2.99651054294886753926e-01) (76, 4.95703135408701658915e-02) (77, -1.28922695774014911541e-01) (78, 5.42386730901492697399e-01) (55, 2.43117957234872866801e-01) (56, 1.17260811707663240022e-01) (57, 1.63087702434326881074e-01) (58, 6.66070997441319700982e-01) (59, 1.35218152815356179586e-01) (60, 8.19420794390955831155e-01) (61, 7.92313606907098733068e-01) (62, 9.88814492759991330029e-03) (63, 7.16770165665390757148e-02) (64, 1.38946582973010296369e-01) (65, 1.68884887921600751470e-01) (66, 1.62194834327821252318e-01) (67, 8.45034063298895493643e-02) (68, 1.32871672504922516689e-01) (69, -1.52151276273457345539e-02) (70, 3.96249977391868513088e-01) (71, 2.45214334950667911528e+00) (72, 7.56936617571674075222e-02) (73, 2.49748291704860958529e-01) (74, 5.69039128191384177557e-02) (75, 2.97322943197639188995e-01) (76, 2.91401989723542420574e-01) (77, 1.22095372096099386017e-01) (78, 5.90486315641042591729e-01) (55, 6.50965359688084443945e-01) (56, 3.41845442947074584783e-01) (57, 3.69973380445042354658e-01) (58, 7.18013053020156166717e-01) (59, 5.14363184170131271244e-01) (60, 4.66153254350103740666e-01) (61, 4.91065261298704813786e-01) (62, 5.83458012345923870967e-01) (63, 2.99025587835722028718e-01) (64, 4.19763817278457906923e-01) (65, 2.27602952438604094754e-01) (66, 3.48326446727993010999e-01) (67, 3.35875956411338827401e-01) (68, 2.43569069565818752121e-01) (69, 5.02695536638465334534e-01) (70, 6.29968768768965681204e-01) (71, 2.85753121102602258841e-01) (72, 2.36118708108409819380e-01) (73, 4.23618274915570136585e-01) (74, 2.32269317196606456255e-01) (75, 5.49655623173479157551e-01) (76, 5.11523406141255465585e-01) (77, 2.37439253628634883153e-01) (78, 3.12981028929331550614e-01) (79, -7.74694228454629457703e-02) (80, 2.78012462180699040926e-02) (81, -3.78839764369598777649e-02) (82, 2.83355665017892943691e-01) (83, -1.77151711887625462616e-01) (84, 1.50373118266110550323e-01) (85, -3.24068539269719291251e-02) (86, 5.11278036577799341322e-02) (87, -1.27624792249327101423e-01) (88, -5.39319499220429557362e-02) (89, 5.97950723413076201673e-01) (90, 3.98236332956820315854e-01) (91, 3.03533974520227234351e-01) (92, 2.10706867456846025366e-01) (79, -1.25000940542935284894e-01) (80, -2.40402179131877474783e-01) (81, 1.50718262258754953642e-01) (82, 3.36421931866380696796e-01) (83, -1.77846617689214919755e-01) (84, 3.19664372805891772167e-02) (85, 8.61780542738525418001e-02) (86, 1.50709666489862531558e-01) (87, -3.05783696650106184833e-01) (88, 1.28117709626841214110e-01) (89, 1.74495241968272346567e-01) (90, -4.04184352088925058499e-01) (91, -3.74420911322072780258e-01) (92, 7.98166472015483657865e-02) (79, 1.54993305906315853582e-01) (80, -8.53403250578150807115e-02) (81, 4.10156101107004567030e-02) (82, 1.21899984047527465414e+00) (83, -2.03073634230912722365e-02) (84, 5.15296582645788439625e-02) (85, 3.74837767248376751983e-01) (86, -4.60397996676346031586e-03) (87, -1.80153797926116548966e-02) (88, 4.99783010770825861235e-02) (89, 2.04279119569494682640e-01) (90, 9.49982825337151726153e-02) (91, -1.24164278942645103787e-02) (92, -5.56412748722463601503e-01) (79, 1.19330740655541556183e-01) (80, 1.00967846043172507220e-01) (81, 1.70080453229390499148e-01) (82, 2.82465551279801219131e-01) (83, 1.55455947908008984548e-01) (84, -2.31268352024067529171e-02) (85, 1.87899464817393418992e-01) (86, 8.73867865013460975998e-02) (87, -2.85052441636303055539e-01) (88, 2.11728542130829588963e-01) (89, 1.67376949755336928982e-01) (90, -2.24604499072047136821e+00) (91, -3.58422864708687283208e-01) (92, 1.89292105174045488525e-01) (79, 6.17912881960353405075e-02) (80, 7.28924172845708817636e-02) (81, 2.27459928749845524676e-01) (82, 2.25242876436331423973e-01) (83, 2.43871143808984114365e-01) (84, 1.55568550311513426054e-01) (85, 1.86345880897759552663e-01) (86, 1.76220151487885695607e-01) (87, 7.55473604630235440194e-02) (88, 2.07126744789756289666e-01) (89, 1.80617338479991368372e-01) (90, -5.04784302940836981932e-01) (91, -1.05411929735232501315e-01) (92, 1.46892250437568976096e-02) (79, 8.71834484581666679937e-02) (80, 1.55541118449453286132e-01) (81, -3.98975902284101138773e-02) (82, 3.15031037147400938547e-01) (83, 1.33992131291092719803e-01) (84, 4.46189878551499941040e-01) (85, -2.21122234679431983739e-01) (86, -1.14440355580408992253e-01) (87, 1.45140661194565756542e-01) (88, -1.48892924394240871999e-01) (89, 2.25432829339936607882e-01) (90, -1.65867949247932355838e+00) (91, 1.70679739044911488177e-01) (92, 2.19137625317044441864e-02) (79, 7.10646326874753847536e-02) (80, 1.07910757778811164376e-01) (81, -2.64961830001461506878e-01) (82, 2.53677162615608353669e-01) (83, 1.43619958086051241475e-01) (84, 3.41143482149199872566e-01) (85, -1.32514011106161982978e-01) (86, -2.49473947032157888914e-01) (87, 6.00699560374250568495e-02) (88, -2.22565095922954453433e-01) (89, 2.72221003294451258103e-01) (90, -4.42808972169724326950e-02) (91, 8.25548454432425415916e-02) (92, 1.95833315272233333959e-02) (93, 1.19955542812067283975e+00) (94, 3.63421558906801667188e-01) (95, 9.59253194355300098373e-02) (96, 3.99636636411794921031e-01) (97, 3.61843628140567696860e-01) (98, 9.10787662526824914888e-02) (99, 4.05910959919957903264e-01) (100, 8.07955532115436775298e-02) (93, 1.00370213810438224655e+00) (94, 3.09642563112158153427e-01) (95, 2.52861713121639020141e-01) (96, 2.24403025942719075436e-01) (97, 2.33591598243536119339e-01) (98, -7.72161956270350363640e-02) (99, 2.38519304582278907079e-01) (100, 2.12167545873642206244e-02) 
